digraph Tree {
node [shape=box, style="filled", color="black"] ;
0 [label="worst area <= 884.75\ngini = 0.475\nsamples = 341\nvalue = [132, 209]\nclass = Malignant", fillcolor="#b6dbf5"] ;
1 [label="worst concave points <= 0.163\ngini = 0.169\nsamples = 226\nvalue = [21, 205]\nclass = Malignant", fillcolor="#4da7e8"] ;
0 -> 1 [labeldistance=2.5, labelangle=45, headlabel="True"] ;
2 [label="worst concave points <= 0.111\ngini = 0.104\nsamples = 217\nvalue = [12, 205]\nclass = Malignant", fillcolor="#45a3e7"] ;
1 -> 2 ;
3 [label="area error <= 48.7\ngini = 0.022\nsamples = 180\nvalue = [2, 178]\nclass = Malignant", fillcolor="#3b9ee5"] ;
2 -> 3 ;
4 [label="gini = 0.0\nsamples = 177\nvalue = [0, 177]\nclass = Malignant", fillcolor="#399de5"] ;
3 -> 4 ;
5 [label="mean concavity <= 0.086\ngini = 0.444\nsamples = 3\nvalue = [2, 1]\nclass = Benign", fillcolor="#f2c09c"] ;
3 -> 5 ;
6 [label="gini = 0.0\nsamples = 2\nvalue = [2, 0]\nclass = Benign", fillcolor="#e58139"] ;
5 -> 6 ;
7 [label="gini = 0.0\nsamples = 1\nvalue = [0, 1]\nclass = Malignant", fillcolor="#399de5"] ;
5 -> 7 ;
8 [label="worst texture <= 27.475\ngini = 0.394\nsamples = 37\nvalue = [10, 27]\nclass = Malignant", fillcolor="#82c1ef"] ;
2 -> 8 ;
9 [label="concave points error <= 0.01\ngini = 0.091\nsamples = 21\nvalue = [1, 20]\nclass = Malignant", fillcolor="#43a2e6"] ;
8 -> 9 ;
10 [label="concavity error <= 0.016\ngini = 0.5\nsamples = 2\nvalue = [1, 1]\nclass = Benign", fillcolor="#ffffff"] ;
9 -> 10 ;
11 [label="gini = 0.0\nsamples = 1\nvalue = [0, 1]\nclass = Malignant", fillcolor="#399de5"] ;
10 -> 11 ;
12 [label="gini = 0.0\nsamples = 1\nvalue = [1, 0]\nclass = Benign", fillcolor="#e58139"] ;
10 -> 12 ;
13 [label="gini = 0.0\nsamples = 19\nvalue = [0, 19]\nclass = Malignant", fillcolor="#399de5"] ;
9 -> 13 ;
14 [label="mean concave points <= 0.044\ngini = 0.492\nsamples = 16\nvalue = [9, 7]\nclass = Benign", fillcolor="#f9e3d3"] ;
8 -> 14 ;
15 [label="fractal dimension error <= 0.002\ngini = 0.346\nsamples = 9\nvalue = [2, 7]\nclass = Malignant", fillcolor="#72b9ec"] ;
14 -> 15 ;
16 [label="gini = 0.0\nsamples = 2\nvalue = [2, 0]\nclass = Benign", fillcolor="#e58139"] ;
15 -> 16 ;
17 [label="gini = 0.0\nsamples = 7\nvalue = [0, 7]\nclass = Malignant", fillcolor="#399de5"] ;
15 -> 17 ;
18 [label="gini = 0.0\nsamples = 7\nvalue = [7, 0]\nclass = Benign", fillcolor="#e58139"] ;
14 -> 18 ;
19 [label="gini = 0.0\nsamples = 9\nvalue = [9, 0]\nclass = Benign", fillcolor="#e58139"] ;
1 -> 19 ;
20 [label="mean texture <= 14.99\ngini = 0.067\nsamples = 115\nvalue = [111, 4]\nclass = Benign", fillcolor="#e68640"] ;
0 -> 20 [labeldistance=2.5, labelangle=-45, headlabel="False"] ;
21 [label="concavity error <= 0.033\ngini = 0.444\nsamples = 6\nvalue = [2, 4]\nclass = Malignant", fillcolor="#9ccef2"] ;
20 -> 21 ;
22 [label="gini = 0.0\nsamples = 4\nvalue = [0, 4]\nclass = Malignant", fillcolor="#399de5"] ;
21 -> 22 ;
23 [label="gini = 0.0\nsamples = 2\nvalue = [2, 0]\nclass = Benign", fillcolor="#e58139"] ;
21 -> 23 ;
24 [label="gini = 0.0\nsamples = 109\nvalue = [109, 0]\nclass = Benign", fillcolor="#e58139"] ;
20 -> 24 ;
}